digraph Tree {
node [shape=box, style="filled, rounded", color="black", fontname="helvetica"] ;
edge [fontname="helvetica"] ;
0 [label="tamanho_pétala <= 5.034\ngini = 0.667\nsamples = 112\nvalue = [37, 37, 38]\nclass = tulipa", fillcolor="#fdfcff"] ;
1 [label="tamanho_pétala <= 2.527\ngini = 0.5\nsamples = 74\nvalue = [37, 37, 0]\nclass = lírio", fillcolor="#ffffff"] ;
0 -> 1 [labeldistance=2.5, labelangle=45, headlabel="True"] ;
2 [label="gini = 0.0\nsamples = 37\nvalue = [0, 37, 0]\nclass = rosa", fillcolor="#39e581"] ;
1 -> 2 ;
3 [label="gini = 0.0\nsamples = 37\nvalue = [37, 0, 0]\nclass = lírio", fillcolor="#e58139"] ;
1 -> 3 ;
4 [label="gini = 0.0\nsamples = 38\nvalue = [0, 0, 38]\nclass = tulipa", fillcolor="#8139e5"] ;
0 -> 4 [labeldistance=2.5, labelangle=-45, headlabel="False"] ;
}